0.0953158,3.56566e-10,0.00468423,-3.56566e-10
0.0906551,7.27593e-13,0.00466069,3.55838e-10
0.0860178,3.5729e-10,0.00463727,-3.56562e-10
0.0814038,1.44785e-12,0.00461397,3.55842e-10
0.0768131,3.58006e-10,0.00459078,-3.56558e-10
0.0722454,2.16078e-12,0.00456771,3.55845e-10
0.0677006,3.58716e-10,0.00454476,-3.56555e-10
0.0631787,2.86664e-12,0.00452192,3.55849e-10
0.0586795,3.59418e-10,0.0044992,-3.56551e-10
0.0542029,3.56541e-12,0.00447659,3.55853e-10
0.0497488,3.60114e-10,0.00445409,-3.56548e-10
0.0453171,4.25719e-12,0.00443171,3.55856e-10
0.0409077,3.60802e-10,0.00440944,-3.56545e-10
0.0365204,4.9421e-12,0.00438728,3.5586e-10
0.0321551,3.61483e-10,0.00436523,-3.56541e-10
0.0278118,5.6201e-12,0.0043433,3.55863e-10
0.0234904,3.62158e-10,0.00432147,-3.56538e-10
0.0191906,6.29135e-12,0.00429976,3.55866e-10
0.0149125,3.62826e-10,0.00427815,-3.56534e-10
0.0106558,6.95585e-12,0.00425665,3.5587e-10
0.00642055,3.63487e-10,0.00423526,-3.56531e-10
0.00220657,7.61363e-12,0.00421398,3.55873e-10
-0.00198624,3.64141e-10,0.0041928,-3.56528e-10
-0.00615797,8.26483e-12,0.00417173,3.55876e-10
-0.0103087,3.64789e-10,0.00415077,-3.56524e-10
-0.0144387,8.90953e-12,0.00412991,3.5588e-10
-0.0185478,3.65431e-10,0.00410916,-3.56521e-10
-0.0226363,9.54771e-12,0.00408851,3.55883e-10
-0.0267043,3.66066e-10,0.00406796,-3.56518e-10
-0.0307518,1.01795e-11,0.00404752,3.55886e-10
-0.034779,3.66694e-10,0.00402718,-3.56515e-10
-0.0387859,1.0805e-11,0.00400695,3.55889e-10
-0.0427728,3.67317e-10,0.00398681,-3.56512e-10
-0.0467395,1.14243e-11,0.00396678,3.55892e-10
-0.0506864,3.67933e-10,0.00394684,-3.56509e-10
-0.0546134,1.20373e-11,0.00392701,3.55895e-10
-0.0585207,3.68543e-10,0.00390728,-3.56505e-10
-0.0624083,1.26442e-11,0.00388764,3.55898e-10
-0.0662764,3.69147e-10,0.00386811,-3.56502e-10
-0.0701251,1.3245e-11,0.00384867,3.55902e-10
-0.0739544,3.69744e-10,0.00382933,-3.56499e-10
-0.0777645,1.38398e-11,0.00381009,3.55905e-10
-0.0815554,3.70336e-10,0.00379094,-3.56496e-10
-0.0853273,1.44286e-11,0.00377189,3.55907e-10
-0.0890802,3.70922e-10,0.00375293,-3.56493e-10
-0.0928143,1.50115e-11,0.00373408,3.5591e-10
-0.0965296,3.71502e-10,0.00371531,-3.5649e-10
-0.100226,1.55886e-11,0.00369664,3.55913e-10
-0.103904,3.72076e-10,0.00367807,-3.56487e-10
-0.107564,1.616e-11,0.00365958,3.55916e-10
-0.111205,3.72644e-10,0.00364119,-3.56484e-10
-0.114828,1.67255e-11,0.0036229,3.55919e-10
-0.118433,3.73207e-10,0.00360469,-3.56481e-10
-0.122019,1.72854e-11,0.00358658,3.55921e-10
-0.125588,3.73764e-10,0.00356855,-3.56479e-10
-0.129138,1.78397e-11,0.00355062,3.55924e-10
-0.132671,3.74315e-10,0.00353278,-3.56476e-10
-0.136186,1.83884e-11,0.00351503,3.55927e-10
-0.139684,3.74861e-10,0.00349736,-3.56473e-10
-0.143163,1.89316e-11,0.00347979,3.5593e-10
-0.146626,3.75402e-10,0.0034623,-3.5647e-10
-0.150071,1.94694e-11,0.0034449,3.55932e-10
-0.153498,3.75937e-10,0.00342759,-3.56467e-10
-0.156909,2.00017e-11,0.00341037,3.55935e-10
-0.160302,3.76467e-10,0.00339323,-3.56465e-10
-0.163678,2.05288e-11,0.00337618,3.55938e-10
-0.167037,3.76991e-10,0.00335921,-3.56462e-10
-0.17038,2.10505e-11,0.00334233,3.5594e-10
-0.173705,3.7751e-10,0.00332554,-3.56459e-10
-0.177014,2.15671e-11,0.00330883,3.55943e-10
-0.180306,3.78024e-10,0.0032922,-3.56457e-10
-0.183582,2.20785e-11,0.00327565,3.55945e-10
-0.186841,3.78533e-10,0.00325919,-3.56454e-10
-0.190084,2.25847e-11,0.00324282,3.55948e-10
-0.19331,3.79036e-10,0.00322652,-3.56452e-10
-0.196521,2.30859e-11,0.00321031,3.5595e-10
-0.199715,3.79535e-10,0.00319417,-3.56449e-10
-0.202893,2.3582e-11,0.00317812,3.55953e-10
-0.206055,3.80028e-10,0.00316215,-3.56447e-10
-0.209201,2.40731e-11,0.00314626,3.55955e-10
-0.212332,3.80517e-10,0.00313045,-3.56444e-10
-0.215446,2.45592e-11,0.00311472,3.55958e-10
-0.218546,3.81001e-10,0.00309907,-3.56442e-10
-0.221629,2.50406e-11,0.0030835,3.5596e-10
-0.224697,3.8148e-10,0.003068,-3.56439e-10
-0.22775,2.55171e-11,0.00305258,3.55963e-10
-0.230787,3.81954e-10,0.00303724,-3.56437e-10
-0.233809,2.59888e-11,0.00302198,3.55965e-10
-0.236816,3.82423e-10,0.0030068,-3.56435e-10
-0.239807,2.64558e-11,0.00299169,3.55968e-10
-0.242784,3.82888e-10,0.00297665,-3.56432e-10
-0.245746,2.69181e-11,0.0029617,3.5597e-10
-0.248692,3.83348e-10,0.00294681,-3.5643e-10
-0.251624,2.73758e-11,0.002932,3.55972e-10
-0.254542,3.83804e-10,0.00291727,-3.56428e-10
-0.257444,2.78289e-11,0.00290261,3.55975e-10
-0.260332,3.84254e-10,0.00288802,-3.56425e-10
-0.263206,2.82775e-11,0.00287351,3.55977e-10
-0.266065,3.84701e-10,0.00285907,-3.56423e-10
-0.26891,2.87216e-11,0.00284471,3.55979e-10
-0.27174,3.85142e-10,0.00283041,-3.56421e-10
-0.274556,2.91612e-11,0.00281619,3.55981e-10
-0.277358,3.8558e-10,0.00280204,-3.56419e-10
-0.280146,2.95964e-11,0.00278795,3.55983e-10
-0.28292,3.86013e-10,0.00277395,-3.56416e-10
-0.28568,3.00273e-11,0.00276001,3.55986e-10
-0.288426,3.86442e-10,0.00274614,-3.56414e-10
-0.291159,3.04538e-11,0.00273234,3.55988e-10
-0.293877,3.86866e-10,0.00271861,-3.56412e-10
-0.296582,3.08761e-11,0.00270494,3.5599e-10
-0.299274,3.87286e-10,0.00269135,-3.5641e-10
-0.301951,3.12941e-11,0.00267783,3.55992e-10
-0.304616,3.87702e-10,0.00266437,-3.56408e-10
-0.307267,3.17079e-11,0.00265098,3.55994e-10
-0.309904,3.88114e-10,0.00263766,-3.56406e-10
-0.312529,3.21176e-11,0.00262441,3.55996e-10
-0.31514,3.88521e-10,0.00261122,-3.56404e-10
-0.317738,3.25232e-11,0.0025981,3.55998e-10
-0.320323,3.88925e-10,0.00258504,-3.56402e-10
-0.322895,3.29247e-11,0.00257205,3.56e-10
-0.325454,3.89324e-10,0.00255913,-3.564e-10
-0.328001,3.33221e-11,0.00254627,3.56002e-10
-0.330534,3.8972e-10,0.00253347,-3.56398e-10
-0.333055,3.37156e-11,0.00252074,3.56004e-10
-0.335563,3.90111e-10,0.00250807,-3.56396e-10
-0.338058,3.41052e-11,0.00249547,3.56006e-10
-0.340541,3.90499e-10,0.00248293,-3.56394e-10
-0.343012,3.44908e-11,0.00247045,3.56008e-10
-0.34547,3.90883e-10,0.00245804,-3.56392e-10
-0.347916,3.48726e-11,0.00244569,3.5601e-10
-0.350349,3.91262e-10,0.0024334,-3.5639e-10
-0.35277,3.52505e-11,0.00242117,3.56012e-10
-0.355179,3.91639e-10,0.002409,-3.56388e-10
-0.357576,3.56247e-11,0.0023969,3.56014e-10
-0.359961,3.92011e-10,0.00238485,-3.56386e-10
-0.362334,3.59951e-11,0.00237287,3.56016e-10
-0.364695,3.92379e-10,0.00236094,-3.56384e-10
-0.367044,3.63617e-11,0.00234908,3.56018e-10
-0.369381,3.92744e-10,0.00233727,-3.56383e-10
-0.371707,3.67247e-11,0.00232553,3.5602e-10
-0.37402,3.93106e-10,0.00231384,-3.56381e-10
-0.376323,3.70841e-11,0.00230222,3.56021e-10
-0.378613,3.93463e-10,0.00229065,-3.56379e-10
-0.380892,3.74399e-11,0.00227914,3.56023e-10
-0.38316,3.93817e-10,0.00226768,-3.56377e-10
-0.385416,3.77921e-11,0.00225629,3.56025e-10
-0.387661,3.94168e-10,0.00224495,-3.56376e-10
-0.389895,3.81407e-11,0.00223367,3.56027e-10
-0.392117,3.94515e-10,0.00222244,-3.56374e-10
-0.394329,3.84859e-11,0.00221128,3.56029e-10
-0.396529,3.94858e-10,0.00220016,-3.56372e-10
-0.398718,3.88276e-11,0.00218911,3.5603e-10
-0.400896,3.95198e-10,0.00217811,-3.5637e-10
-0.403063,3.91659e-11,0.00216716,3.56032e-10
-0.405219,3.95535e-10,0.00215627,-3.56369e-10
-0.407365,3.95008e-11,0.00214544,3.56034e-10
-0.4095,3.95868e-10,0.00213466,-3.56367e-10
-0.411624,3.98324e-11,0.00212393,3.56035e-10
-0.413737,3.96198e-10,0.00211326,-3.56365e-10
-0.415839,4.01606e-11,0.00210264,3.56037e-10
-0.417931,3.96524e-10,0.00209207,-3.56364e-10
-0.420013,4.04855e-11,0.00208156,3.56039e-10
-0.422084,3.96848e-10,0.0020711,-3.56362e-10
-0.424145,4.08071e-11,0.00206069,3.56041e-10
-0.426195,3.97168e-10,0.00205033,-3.56361e-10
-0.428235,4.11256e-11,0.00204003,3.56042e-10
-0.430265,3.97485e-10,0.00202978,-3.56359e-10
-0.432285,4.14408e-11,0.00201958,3.56044e-10
-0.434294,3.97798e-10,0.00200943,-3.56358e-10
-0.436293,4.17529e-11,0.00199933,3.56045e-10
-0.438283,3.98109e-10,0.00198929,-3.56356e-10
-0.440262,4.20619e-11,0.00197929,3.56047e-10
-0.442231,3.98416e-10,0.00196934,-3.56354e-10
-0.444191,4.23678e-11,0.00195945,3.56048e-10
-0.44614,3.98721e-10,0.0019496,-3.56353e-10
-0.44808,4.26705e-11,0.0019398,3.5605e-10
-0.45001,3.99022e-10,0.00193006,-3.56351e-10
-0.45193,4.29703e-11,0.00192036,3.56052e-10
-0.453841,3.9932e-10,0.00191071,-3.5635e-10
-0.455742,4.32671e-11,0.00190111,3.56053e-10
-0.457634,3.99615e-10,0.00189155,-3.56348e-10
-0.459516,4.35608e-11,0.00188205,3.56055e-10
-0.461388,3.99908e-10,0.00187259,-3.56347e-10
-0.463252,4.38517e-11,0.00186318,3.56056e-10
-0.465105,4.00197e-10,0.00185382,-3.56345e-10
-0.46695,4.41397e-11,0.0018445,3.56057e-10
-0.468785,4.00484e-10,0.00183523,-3.56344e-10
-0.470611,4.44247e-11,0.00182601,3.56059e-10
-0.472428,4.00767e-10,0.00181683,-3.56343e-10
-0.474236,4.47069e-11,0.0018077,3.5606e-10
-0.476034,4.01048e-10,0.00179862,-3.56341e-10
-0.477824,4.49863e-11,0.00178958,3.56062e-10
-0.479605,4.01326e-10,0.00178059,-3.5634e-10
-0.481376,4.52628e-11,0.00177164,3.56063e-10
-0.483139,4.01601e-10,0.00176274,-3.56338e-10
-0.484893,4.55366e-11,0.00175388,3.56065e-10
-0.486638,4.01874e-10,0.00174507,-3.56337e-10
-0.488374,4.58077e-11,0.0017363,3.56066e-10
-0.490102,4.02143e-10,0.00172757,-3.56336e-10
-0.491821,4.6076e-11,0.00171889,3.56067e-10
-0.493531,4.0241e-10,0.00171025,-3.56334e-10
-0.495233,4.63417e-11,0.00170166,3.56068e-10
-0.496926,4.02674e-10,0.00169311,-3.56333e-10
-0.49861,4.66047e-11,0.0016846,3.5607e-10
-0.500286,4.02936e-10,0.00167614,-3.56331e-10
-0.501954,4.68649e-11,0.00166771,3.56071e-10
-0.503613,4.03195e-10,0.00165933,-3.5633e-10
-0.505264,4.71227e-11,0.00165099,3.56072e-10
-0.506907,4.03452e-10,0.0016427,-3.56329e-10
-0.508542,4.73778e-11,0.00163444,3.56074e-10
-0.510168,4.03705e-10,0.00162623,-3.56328e-10
-0.511786,4.76304e-11,0.00161806,3.56075e-10
-0.513396,4.03957e-10,0.00160993,-3.56326e-10
-0.514998,4.78804e-11,0.00160184,3.56076e-10
-0.516591,4.04206e-10,0.00159379,-3.56325e-10
-0.518177,4.8128e-11,0.00158578,3.56078e-10
-0.519755,4.04452e-10,0.00157781,-3.56324e-10
-0.521325,4.8373e-11,0.00156988,3.56079e-10
-0.522887,4.04696e-10,0.00156199,-3.56323e-10
-0.524441,4.86156e-11,0.00155414,3.5608e-10
-0.525987,4.04937e-10,0.00154633,-3.56321e-10
-0.527526,4.88558e-11,0.00153856,3.56081e-10
-0.529057,4.05176e-10,0.00153083,-3.5632e-10
-0.53058,4.90935e-11,0.00152314,3.56083e-10
-0.532095,4.05413e-10,0.00151548,-3.56319e-10
-0.533603,4.93289e-11,0.00150787,3.56084e-10
-0.535104,4.05647e-10,0.00150029,-3.56318e-10
-0.536596,4.95618e-11,0.00149275,3.56085e-10
-0.538082,4.05879e-10,0.00148525,-3.56317e-10
-0.539559,4.97925e-11,0.00147779,3.56086e-10
-0.54103,4.06108e-10,0.00147036,-3.56316e-10
-0.542493,5.00209e-11,0.00146297,3.56087e-10
-0.543948,4.06336e-10,0.00145562,-3.56315e-10
-0.545397,5.0247e-11,0.00144831,3.56089e-10
-0.546838,4.0656e-10,0.00144103,-3.56313e-10
-0.548271,5.04708e-11,0.00143379,3.5609e-10
-0.549698,4.06783e-10,0.00142658,-3.56312e-10
-0.551117,5.06924e-11,0.00141941,3.56091e-10
-0.55253,4.07004e-10,0.00141228,-3.56311e-10
-0.553935,5.09117e-11,0.00140518,3.56092e-10
-0.555333,4.07222e-10,0.00139812,-3.5631e-10
-0.556724,5.11289e-11,0.0013911,3.56093e-10
-0.558108,4.07438e-10,0.00138411,-3.56309e-10
-0.559485,5.13439e-11,0.00137715,3.56094e-10
-0.560856,4.07652e-10,0.00137023,-3.56308e-10
-0.562219,5.15567e-11,0.00136335,3.56095e-10
-0.563575,4.07864e-10,0.00135649,-3.56307e-10
-0.564925,5.17674e-11,0.00134968,3.56096e-10
-0.566268,4.08073e-10,0.0013429,-3.56306e-10
-0.567604,5.1976e-11,0.00133615,3.56097e-10
-0.568934,4.08281e-10,0.00132943,-3.56305e-10
-0.570256,5.21824e-11,0.00132275,3.56098e-10
-0.571572,4.08486e-10,0.00131611,-3.56304e-10
-0.572882,5.23868e-11,0.00130949,3.56099e-10
-0.574185,4.0869e-10,0.00130291,-3.56303e-10
-0.575481,5.25892e-11,0.00129636,3.561e-10
-0.576771,4.08891e-10,0.00128985,-3.56302e-10
-0.578054,5.27895e-11,0.00128337,3.56101e-10
-0.579331,4.0909e-10,0.00127692,-3.56301e-10
-0.580602,5.29879e-11,0.0012705,3.56102e-10
-0.581866,4.09288e-10,0.00126412,-3.563e-10
-0.583124,5.31842e-11,0.00125777,3.56103e-10
-0.584375,4.09483e-10,0.00125145,-3.56299e-10
-0.58562,5.33786e-11,0.00124516,3.56104e-10
-0.586859,4.09676e-10,0.0012389,-3.56298e-10
-0.588092,5.3571e-11,0.00123267,3.56105e-10
-0.589318,4.09868e-10,0.00122648,-3.56297e-10
-0.590539,5.37615e-11,0.00122032,3.56106e-10
-0.591753,4.10057e-10,0.00121418,-3.56296e-10
-0.592961,5.39501e-11,0.00120808,3.56107e-10
-0.594163,4.10245e-10,0.00120201,-3.56295e-10
-0.595359,5.41369e-11,0.00119597,3.56108e-10
-0.596549,4.10431e-10,0.00118996,-3.56294e-10
-0.597733,5.43217e-11,0.00118398,3.56109e-10
-0.598911,4.10615e-10,0.00117803,-3.56293e-10
-0.600083,5.45047e-11,0.00117211,3.5611e-10
-0.601249,4.10797e-10,0.00116622,-3.56292e-10
-0.60241,5.46858e-11,0.00116036,3.56111e-10
-0.603564,4.10977e-10,0.00115453,-3.56291e-10
-0.604713,5.48651e-11,0.00114873,3.56112e-10
-0.605856,4.11155e-10,0.00114296,-3.5629e-10
-0.606993,5.50426e-11,0.00113721,3.56113e-10
-0.608125,4.11332e-10,0.0011315,-3.56289e-10
-0.60925,5.52184e-11,0.00112581,3.56113e-10
-0.610371,4.11507e-10,0.00112016,-3.56288e-10
-0.611485,5.53923e-11,0.00111453,3.56114e-10
-0.612594,4.1168e-10,0.00110893,-3.56288e-10
-0.613697,5.55646e-11,0.00110335,3.56115e-10
-0.614795,4.11851e-10,0.00109781,-3.56287e-10
-0.615887,5.57351e-11,0.00109229,3.56116e-10
-0.616974,4.12021e-10,0.0010868,-3.56286e-10
-0.618056,5.59039e-11,0.00108134,3.56117e-10
-0.619131,4.12189e-10,0.00107591,-3.56285e-10
-0.620202,5.60709e-11,0.0010705,3.56118e-10
-0.621267,4.12355e-10,0.00106512,-3.56284e-10
-0.622327,5.62364e-11,0.00105977,3.56119e-10
-0.623381,4.1252e-10,0.00105444,-3.56283e-10
-0.62443,5.64002e-11,0.00104915,3.5612e-10
-0.625474,4.12683e-10,0.00104387,-3.56282e-10
-0.626513,5.65623e-11,0.00103863,3.5612e-10
-0.627546,4.12844e-10,0.00103341,-3.56282e-10
-0.628575,5.67229e-11,0.00102822,3.56121e-10
-0.629598,4.13004e-10,0.00102305,-3.56281e-10
-0.630616,5.68818e-11,0.00101791,3.56122e-10
-0.631628,4.13162e-10,0.00101279,-3.5628e-10
-0.632636,5.70391e-11,0.0010077,3.56123e-10
-0.633639,4.13318e-10,0.00100264,-3.56279e-10
-0.634636,5.71948e-11,0.000997601,3.56123e-10
-0.635629,4.13473e-10,0.000992588,-3.56278e-10
-0.636616,5.7349e-11,0.0009876,3.56124e-10
-0.637599,4.13627e-10,0.000982637,-3.56278e-10
-0.638577,5.75016e-11,0.0009777,3.56125e-10
-0.63955,4.13778e-10,0.000972786,-3.56277e-10
-0.640518,5.76526e-11,0.000967898,3.56126e-10
-0.641481,4.13929e-10,0.000963034,-3.56276e-10
-0.642439,5.78021e-11,0.000958195,3.56127e-10
-0.643392,4.14078e-10,0.00095338,-3.56276e-10
-0.644341,5.79502e-11,0.000948589,3.56127e-10
-0.645285,4.14225e-10,0.000943822,-3.56275e-10
-0.646224,5.80968e-11,0.000939079,3.56128e-10
-0.647158,4.14371e-10,0.00093436,-3.56274e-10
-0.648088,5.82419e-11,0.000929665,3.56129e-10
-0.649013,4.14515e-10,0.000924993,-3.56273e-10
-0.649933,5.83856e-11,0.000920345,3.5613e-10
-0.650849,4.14658e-10,0.00091572,-3.56273e-10
-0.65176,5.85278e-11,0.000911119,3.5613e-10
-0.652666,4.148e-10,0.00090654,-3.56272e-10
-0.653568,5.86686e-11,0.000901985,3.56131e-10
-0.654466,4.1494e-10,0.000897452,-3.56271e-10
-0.655359,5.8808e-11,0.000892942,3.56132e-10
-0.656247,4.15079e-10,0.000888455,-3.56271e-10
-0.657131,5.8946e-11,0.000883991,3.56133e-10
-0.658011,4.15216e-10,0.000879549,-3.5627e-10
-0.658886,5.90826e-11,0.000875129,3.56133e-10
-0.659757,4.15352e-10,0.000870731,-3.56269e-10
-0.660623,5.92179e-11,0.000866356,3.56134e-10
-0.661485,4.15486e-10,0.000862002,-3.56268e-10
-0.662343,5.93517e-11,0.00085767,3.56135e-10
-0.663196,4.1562e-10,0.00085336,-3.56268e-10
-0.664045,5.94843e-11,0.000849072,3.56135e-10
-0.66489,4.15751e-10,0.000844805,-3.56267e-10
-0.66573,5.96155e-11,0.00084056,3.56136e-10
-0.666567,4.15882e-10,0.000836336,-3.56266e-10
-0.667399,5.97454e-11,0.000832134,3.56137e-10
-0.668227,4.16011e-10,0.000827952,-3.56266e-10
-0.669051,5.9874e-11,0.000823791,3.56137e-10
-0.66987,4.16139e-10,0.000819652,-3.56265e-10
-0.670686,6.00013e-11,0.000815533,3.56138e-10
-0.671497,4.16266e-10,0.000811435,-3.56264e-10
-0.672305,6.01274e-11,0.000807357,3.56138e-10
-0.673108,4.16391e-10,0.0008033,-3.56264e-10
-0.673907,6.02521e-11,0.000799263,3.56139e-10
-0.674702,4.16515e-10,0.000795247,-3.56263e-10
-0.675494,6.03756e-11,0.000791251,3.5614e-10
-0.676281,4.16638e-10,0.000787275,-3.56263e-10
-0.677064,6.0498e-11,0.000783319,3.5614e-10
-0.677844,4.1676e-10,0.000779382,-3.56262e-10
-0.678619,6.0619e-11,0.000775466,3.56141e-10
-0.679391,4.1688e-10,0.000771569,-3.56261e-10
-0.680158,6.07388e-11,0.000767692,3.56142e-10
-0.680922,4.17e-10,0.000763834,-3.56261e-10
-0.681682,6.08575e-11,0.000759996,3.56142e-10
-0.682438,4.17118e-10,0.000756177,-3.5626e-10
-0.683191,6.09749e-11,0.000752377,3.56143e-10
-0.683939,4.17234e-10,0.000748596,-3.56259e-10
-0.684684,6.10912e-11,0.000744834,3.56143e-10
-0.685425,4.1735e-10,0.000741091,-3.56259e-10
-0.686163,6.12063e-11,0.000737367,3.56144e-10
-0.686896,4.17465e-10,0.000733662,-3.56258e-10
-0.687626,6.13202e-11,0.000729975,3.56144e-10
-0.688353,4.17578e-10,0.000726307,-3.56258e-10
-0.689075,6.14331e-11,0.000722657,3.56145e-10
-0.689794,4.1769e-10,0.000719026,-3.56257e-10
-0.69051,6.15448e-11,0.000715412,3.56145e-10
-0.691221,4.17801e-10,0.000711817,-3.56257e-10
-0.69193,6.16553e-11,0.00070824,3.56146e-10
-0.692634,4.17911e-10,0.000704681,-3.56256e-10
-0.693336,6.17647e-11,0.00070114,3.56147e-10
-0.694033,4.1802e-10,0.000697617,-3.56256e-10
-0.694727,6.18731e-11,0.000694111,3.56147e-10
-0.695418,4.18128e-10,0.000690623,-3.56255e-10
-0.696105,6.19804e-11,0.000687153,3.56148e-10
-0.696789,4.18235e-10,0.0006837,-3.56254e-10
-0.697469,6.20866e-11,0.000680264,3.56148e-10
-0.698146,4.1834e-10,0.000676846,-3.56254e-10
-0.698819,6.21917e-11,0.000673445,3.56149e-10
-0.699489,4.18445e-10,0.00067006,-3.56253e-10
-0.700156,6.22957e-11,0.000666693,3.56149e-10
-0.700819,4.18549e-10,0.000663343,-3.56253e-10
-0.701479,6.23988e-11,0.00066001,3.5615e-10
-0.702136,4.18651e-10,0.000656693,-3.56252e-10
-0.70279,6.25008e-11,0.000653393,3.5615e-10
-0.70344,4.18753e-10,0.00065011,-3.56252e-10
-0.704086,6.26017e-11,0.000646843,3.56151e-10
-0.70473,4.18853e-10,0.000643592,-3.56251e-10
-0.70537,6.27017e-11,0.000640358,3.56151e-10
-0.706008,4.18953e-10,0.00063714,-3.56251e-10
-0.706641,6.28007e-11,0.000633939,3.56152e-10
-0.707272,4.19051e-10,0.000630753,-3.5625e-10
-0.7079,6.28986e-11,0.000627583,3.56152e-10
-0.708524,4.19148e-10,0.00062443,-3.5625e-10
-0.709146,6.29956e-11,0.000621292,3.56153e-10
-0.709764,4.19245e-10,0.00061817,-3.56249e-10
-0.710379,6.30916e-11,0.000615063,3.56153e-10
-0.710991,4.19341e-10,0.000611973,-3.56249e-10
-0.7116,6.31867e-11,0.000608897,3.56154e-10
-0.712205,4.19435e-10,0.000605838,-3.56248e-10
-0.712808,6.32808e-11,0.000602793,3.56154e-10
-0.713408,4.19529e-10,0.000599764,-3.56248e-10
-0.714005,6.33739e-11,0.00059675,3.56155e-10
-0.714599,4.19621e-10,0.000593751,-3.56247e-10
-0.715189,6.34661e-11,0.000590768,3.56155e-10
-0.715777,4.19713e-10,0.000587799,-3.56247e-10
-0.716362,6.35574e-11,0.000584845,3.56156e-10
-0.716944,4.19804e-10,0.000581906,-3.56247e-10
-0.717523,6.36478e-11,0.000578982,3.56156e-10
-0.718099,4.19894e-10,0.000576073,-3.56246e-10
-0.718672,6.37373e-11,0.000573178,3.56157e-10
-0.719242,4.19983e-10,0.000570298,-3.56246e-10
-0.71981,6.38258e-11,0.000567432,3.56157e-10
-0.720374,4.20071e-10,0.00056458,-3.56245e-10
-0.720936,6.39135e-11,0.000561743,3.56158e-10
-0.721495,4.20158e-10,0.000558921,-3.56245e-10
-0.722051,6.40003e-11,0.000556112,3.56158e-10
-0.722605,4.20245e-10,0.000553317,-3.56244e-10
-0.723155,6.40863e-11,0.000550537,3.56158e-10
-0.723703,4.2033e-10,0.00054777,-3.56244e-10
-0.724248,6.41714e-11,0.000545018,3.56159e-10
-0.72479,4.20415e-10,0.000542279,-3.56244e-10
-0.72533,6.42556e-11,0.000539554,3.56159e-10
-0.725867,4.20499e-10,0.000536843,-3.56243e-10
-0.726401,6.4339e-11,0.000534145,3.5616e-10
-0.726932,4.20582e-10,0.000531461,-3.56243e-10
-0.727461,6.44215e-11,0.00052879,3.5616e-10
-0.727987,4.20664e-10,0.000526133,-3.56242e-10
-0.728511,6.45033e-11,0.000523489,3.56161e-10
-0.729031,4.20745e-10,0.000520858,-3.56242e-10
-0.72955,6.45842e-11,0.000518241,3.56161e-10
-0.730065,4.20825e-10,0.000515637,-3.56241e-10
-0.730578,6.46643e-11,0.000513046,3.56161e-10
-0.731089,4.20905e-10,0.000510468,-3.56241e-10
-0.731597,6.47436e-11,0.000507902,3.56162e-10
-0.732102,4.20984e-10,0.00050535,-3.5624e-10
-0.732605,6.48221e-11,0.000502811,3.56162e-10
-0.733105,4.21062e-10,0.000500284,-3.5624e-10
-0.733603,6.48998e-11,0.00049777,3.56162e-10
-0.734098,4.2114e-10,0.000495269,-3.5624e-10
-0.734591,6.49767e-11,0.00049278,3.56163e-10
-0.735081,4.21216e-10,0.000490304,-3.56239e-10
-0.735569,6.50529e-11,0.00048784,3.56163e-10
-0.736054,4.21292e-10,0.000485388,-3.56239e-10
-0.736537,6.51283e-11,0.000482949,3.56163e-10
-0.737018,4.21367e-10,0.000480522,-3.56238e-10
-0.737496,6.52029e-11,0.000478108,3.56164e-10
-0.737972,4.21441e-10,0.000475705,-3.56238e-10
-0.738445,6.52768e-11,0.000473315,3.56164e-10
-0.738916,4.21515e-10,0.000470936,-3.56238e-10
-0.739385,6.53499e-11,0.00046857,3.56165e-10
-0.739851,4.21587e-10,0.000466215,-3.56237e-10
-0.740315,6.54223e-11,0.000463872,3.56165e-10
-0.740776,4.21659e-10,0.000461541,-3.56237e-10
-0.741235,6.5494e-11,0.000459222,3.56165e-10
-0.741692,4.21731e-10,0.000456914,-3.56237e-10
-0.742147,6.5565e-11,0.000454618,3.56166e-10
-0.742599,4.21801e-10,0.000452334,-3.56236e-10
-0.743049,6.56352e-11,0.000450061,3.56166e-10
-0.743497,4.21871e-10,0.000447799,-3.56236e-10
-0.743943,6.57047e-11,0.000445549,3.56167e-10
-0.744386,4.21941e-10,0.00044331,-3.56236e-10
-0.744827,6.57736e-11,0.000441082,3.56167e-10
-0.745266,4.22009e-10,0.000438866,-3.56235e-10
-0.745703,6.58418e-11,0.00043666,3.56167e-10
-0.746137,4.22077e-10,0.000434466,-3.56235e-10
-0.746569,6.59092e-11,0.000432283,3.56168e-10
-0.746999,4.22144e-10,0.00043011,-3.56235e-10
-0.747427,6.59761e-11,0.000427949,3.56168e-10
-0.747853,4.2221e-10,0.000425799,-3.56234e-10
-0.748277,6.60422e-11,0.000423659,3.56168e-10
-0.748698,4.22276e-10,0.00042153,-3.56234e-10
-0.749118,6.61077e-11,0.000419412,3.56168e-10
-0.749535,4.22341e-10,0.000417304,-3.56234e-10
-0.74995,6.61725e-11,0.000415207,3.56169e-10
-0.750363,4.22406e-10,0.000413121,-3.56233e-10
-0.750775,6.62366e-11,0.000411045,3.56169e-10
-0.751183,4.2247e-10,0.000408979,-3.56233e-10
-0.75159,6.63001e-11,0.000406924,3.5617e-10
-0.751995,4.22533e-10,0.000404879,-3.56233e-10
-0.752398,6.6363e-11,0.000402845,3.5617e-10
-0.752799,4.22595e-10,0.00040082,-3.56232e-10
-0.753198,6.64253e-11,0.000398806,3.5617e-10
-0.753595,4.22657e-10,0.000396802,-3.56232e-10
-0.753989,6.64869e-11,0.000394808,3.56171e-10
-0.754382,4.22719e-10,0.000392824,-3.56232e-10
-0.754773,6.65479e-11,0.00039085,3.56171e-10
-0.755162,4.22779e-10,0.000388886,-3.56231e-10
-0.755549,6.66084e-11,0.000386932,3.56171e-10
-0.755934,4.2284e-10,0.000384987,-3.56231e-10
-0.756317,6.66681e-11,0.000383053,3.56171e-10
-0.756698,4.22899e-10,0.000381128,-3.56231e-10
-0.757077,6.67273e-11,0.000379213,3.56172e-10
-0.757455,4.22958e-10,0.000377307,-3.56231e-10
-0.75783,6.67859e-11,0.000375411,3.56172e-10
-0.758203,4.23016e-10,0.000373525,-3.5623e-10
-0.758575,6.68439e-11,0.000371648,3.56172e-10
-0.758945,4.23074e-10,0.00036978,-3.5623e-10
-0.759313,6.69013e-11,0.000367922,3.56173e-10
-0.759679,4.23131e-10,0.000366073,-3.5623e-10
-0.760043,6.69581e-11,0.000364233,3.56173e-10
-0.760406,4.23188e-10,0.000362403,-3.5623e-10
-0.760766,6.70144e-11,0.000360582,3.56173e-10
-0.761125,4.23244e-10,0.00035877,-3.56229e-10
-0.761482,6.70701e-11,0.000356967,3.56174e-10
-0.761837,4.23299e-10,0.000355173,-3.56229e-10
-0.76219,6.71252e-11,0.000353389,3.56174e-10
-0.762542,4.23354e-10,0.000351613,-3.56229e-10
-0.762892,6.71798e-11,0.000349846,3.56174e-10
-0.76324,4.23409e-10,0.000348088,-3.56229e-10
-0.763586,6.72338e-11,0.000346339,3.56175e-10
-0.763931,4.23462e-10,0.000344598,-3.56229e-10
-0.764274,6.72873e-11,0.000342867,3.56175e-10
-0.764615,4.23516e-10,0.000341144,-3.56228e-10
-0.764954,6.73403e-11,0.000339429,3.56175e-10
-0.765292,4.23568e-10,0.000337724,-3.56228e-10
-0.765628,6.73928e-11,0.000336027,3.56176e-10
-0.765962,4.23621e-10,0.000334338,-3.56228e-10
-0.766295,6.74448e-11,0.000332658,3.56176e-10
-0.766626,4.23672e-10,0.000330986,-3.56227e-10
-0.766955,6.74962e-11,0.000329323,3.56176e-10
-0.767283,4.23723e-10,0.000327668,-3.56227e-10
-0.767609,6.75471e-11,0.000326021,3.56176e-10
-0.767933,4.23774e-10,0.000324383,-3.56227e-10
-0.768256,6.75974e-11,0.000322753,3.56177e-10
-0.768577,4.23824e-10,0.000321131,-3.56227e-10
-0.768897,6.76473e-11,0.000319518,3.56177e-10
-0.769215,4.23874e-10,0.000317912,-3.56226e-10
-0.769531,6.76967e-11,0.000316314,3.56177e-10
-0.769846,4.23923e-10,0.000314725,-3.56226e-10
-0.770159,6.77456e-11,0.000313143,3.56177e-10
-0.770471,4.23971e-10,0.00031157,-3.56226e-10
-0.770781,6.7794e-11,0.000310004,3.56177e-10
-0.771089,4.2402e-10,0.000308446,-3.56226e-10
-0.771396,6.78419e-11,0.000306896,3.56178e-10
-0.771701,4.24067e-10,0.000305354,-3.56225e-10
-0.772005,6.78893e-11,0.00030382,3.56178e-10
-0.772307,4.24115e-10,0.000302293,-3.56225e-10
-0.772608,6.79362e-11,0.000300774,3.56178e-10
-0.772907,4.24161e-10,0.000299262,-3.56225e-10
-0.773205,6.79827e-11,0.000297759,3.56179e-10
-0.773501,4.24208e-10,0.000296262,-3.56225e-10
-0.773796,6.80287e-11,0.000294774,3.56179e-10
-0.774089,4.24253e-10,0.000293292,-3.56225e-10
-0.774381,6.80743e-11,0.000291818,3.56179e-10
-0.774672,4.24299e-10,0.000290352,-3.56224e-10
-0.774961,6.81193e-11,0.000288893,3.56179e-10
-0.775248,4.24344e-10,0.000287441,-3.56224e-10
-0.775534,6.8164e-11,0.000285997,3.5618e-10
-0.775819,4.24388e-10,0.00028456,-3.56224e-10
-0.776102,6.82082e-11,0.00028313,3.5618e-10
-0.776383,4.24432e-10,0.000281707,-3.56224e-10
-0.776664,6.8252e-11,0.000280291,3.5618e-10
-0.776943,4.24475e-10,0.000278883,-3.56223e-10
-0.77722,6.82952e-11,0.000277481,3.5618e-10
-0.777496,4.24519e-10,0.000276087,-3.56223e-10
-0.777771,6.83381e-11,0.0002747,3.5618e-10
-0.778044,4.24561e-10,0.000273319,-3.56223e-10
-0.778316,6.83806e-11,0.000271946,3.56181e-10
-0.778587,4.24603e-10,0.000270579,-3.56223e-10
-0.778856,6.84226e-11,0.00026922,3.56181e-10
-0.779124,4.24645e-10,0.000267867,-3.56223e-10
-0.77939,6.84642e-11,0.000266521,3.56181e-10
-0.779655,4.24687e-10,0.000265181,-3.56222e-10
-0.779919,6.85054e-11,0.000263849,3.56181e-10
-0.780182,4.24728e-10,0.000262523,-3.56222e-10
-0.780443,6.85462e-11,0.000261204,3.56181e-10
-0.780703,4.24768e-10,0.000259891,-3.56222e-10
-0.780961,6.85866e-11,0.000258585,3.56182e-10
-0.781219,4.24808e-10,0.000257286,-3.56222e-10
-0.781475,6.86266e-11,0.000255993,3.56182e-10
-0.781729,4.24848e-10,0.000254706,-3.56221e-10
-0.781983,6.86661e-11,0.000253426,3.56182e-10
-0.782235,4.24887e-10,0.000252153,-3.56221e-10
-0.782486,6.87053e-11,0.000250886,3.56182e-10
-0.782736,4.24926e-10,0.000249625,-3.56221e-10
-0.782984,6.87441e-11,0.000248371,3.56182e-10
-0.783231,4.24965e-10,0.000247123,-3.56221e-10
-0.783477,6.87824e-11,0.000245881,3.56183e-10
-0.783722,4.25003e-10,0.000244645,-3.56221e-10
-0.783965,6.88205e-11,0.000243416,3.56183e-10
-0.784207,4.25041e-10,0.000242193,-3.5622e-10
-0.784448,6.88581e-11,0.000240976,3.56183e-10
-0.784688,4.25078e-10,0.000239765,-3.5622e-10
-0.784926,6.88953e-11,0.00023856,3.56183e-10
-0.785164,4.25115e-10,0.000237361,-3.5622e-10
-0.7854,6.89322e-11,0.000236168,3.56183e-10
-0.785635,4.25152e-10,0.000234981,-3.5622e-10
-0.785869,6.89687e-11,0.000233801,3.56183e-10
-0.786101,4.25188e-10,0.000232626,-3.5622e-10
-0.786333,6.90048e-11,0.000231457,3.56184e-10
-0.786563,4.25224e-10,0.000230294,-3.5622e-10
-0.786792,6.90405e-11,0.000229136,3.56184e-10
-0.78702,4.2526e-10,0.000227985,-3.5622e-10
-0.787247,6.90759e-11,0.000226839,3.56184e-10
-0.787473,4.25295e-10,0.000225699,-3.56219e-10
-0.787697,6.9111e-11,0.000224565,3.56184e-10
-0.787921,4.2533e-10,0.000223437,-3.56219e-10
-0.788143,6.91457e-11,0.000222314,3.56184e-10
-0.788364,4.25365e-10,0.000221197,-3.56219e-10
-0.788584,6.918e-11,0.000220085,3.56185e-10
-0.788803,4.25399e-10,0.000218979,-3.56219e-10
-0.789021,6.9214e-11,0.000217879,3.56185e-10
-0.789238,4.25433e-10,0.000216784,-3.56219e-10
-0.789454,6.92477e-11,0.000215695,3.56185e-10
-0.789668,4.25466e-10,0.000214611,-3.56219e-10
-0.789882,6.9281e-11,0.000213532,3.56185e-10
-0.790094,4.25499e-10,0.000212459,-3.56218e-10
-0.790306,6.9314e-11,0.000211392,3.56185e-10
-0.790516,4.25532e-10,0.000210329,-3.56218e-10
-0.790725,6.93467e-11,0.000209273,3.56186e-10
-0.790934,4.25565e-10,0.000208221,-3.56218e-10
-0.791141,6.9379e-11,0.000207175,3.56186e-10
-0.791347,4.25597e-10,0.000206134,-3.56218e-10
-0.791552,6.9411e-11,0.000205098,3.56186e-10
-0.791756,4.25629e-10,0.000204067,-3.56218e-10
-0.791959,6.94427e-11,0.000203042,3.56186e-10
-0.792161,4.2566e-10,0.000202021,-3.56218e-10
-0.792362,6.94741e-11,0.000201006,3.56186e-10
-0.792562,4.25692e-10,0.000199996,-3.56217e-10
-0.792761,6.95051e-11,0.000198991,3.56186e-10
-0.792959,4.25722e-10,0.000197991,-3.56217e-10
-0.793156,6.95359e-11,0.000196996,3.56187e-10
-0.793352,4.25753e-10,0.000196006,-3.56217e-10
-0.793547,6.95663e-11,0.000195021,3.56187e-10
-0.793741,4.25783e-10,0.000194041,-3.56217e-10
-0.793934,6.95965e-11,0.000193066,3.56187e-10
-0.794126,4.25813e-10,0.000192096,-3.56217e-10
-0.794317,6.96263e-11,0.000191131,3.56187e-10
-0.794508,4.25843e-10,0.00019017,-3.56217e-10
-0.794697,6.96558e-11,0.000189215,3.56187e-10
-0.794885,4.25872e-10,0.000188264,-3.56217e-10
-0.795072,6.96851e-11,0.000187318,3.56187e-10
-0.795259,4.25901e-10,0.000186376,-3.56216e-10
-0.795444,6.9714e-11,0.00018544,3.56187e-10
-0.795629,4.2593e-10,0.000184508,-3.56216e-10
-0.795812,6.97427e-11,0.000183581,3.56188e-10
-0.795995,4.25959e-10,0.000182658,-3.56216e-10
-0.796177,6.9771e-11,0.00018174,3.56188e-10
-0.796358,4.25987e-10,0.000180827,-3.56216e-10
-0.796537,6.97991e-11,0.000179918,3.56188e-10
-0.796717,4.26015e-10,0.000179014,-3.56216e-10
-0.796895,6.98269e-11,0.000178115,3.56188e-10
-0.797072,4.26043e-10,0.00017722,-3.56216e-10
-0.797248,6.98544e-11,0.000176329,3.56188e-10
-0.797424,4.2607e-10,0.000175443,-3.56216e-10
-0.797598,6.98817e-11,0.000174561,3.56188e-10
-0.797772,4.26097e-10,0.000173684,-3.56216e-10
-0.797945,6.99086e-11,0.000172811,3.56189e-10
-0.798117,4.26124e-10,0.000171943,-3.56215e-10
-0.798288,6.99354e-11,0.000171079,3.56189e-10
-0.798458,4.26151e-10,0.000170219,-3.56215e-10
-0.798627,6.99618e-11,0.000169364,3.56189e-10
-0.798796,4.26177e-10,0.000168513,-3.56215e-10
-0.798963,6.9988e-11,0.000167666,3.56189e-10
-0.79913,4.26203e-10,0.000166824,-3.56215e-10
-0.799296,7.00139e-11,0.000165985,3.56189e-10
-0.799461,4.26229e-10,0.000165151,-3.56215e-10
-0.799626,7.00395e-11,0.000164321,3.56189e-10
-0.799789,4.26254e-10,0.000163496,-3.56215e-10
-0.799952,7.00649e-11,0.000162674,3.56189e-10
-0.800114,4.2628e-10,0.000161856,-3.56215e-10
-0.800275,7.009e-11,0.000161043,3.5619e-10
-0.800435,4.26305e-10,0.000160234,-3.56215e-10
-0.800594,7.01148e-11,0.000159429,3.5619e-10
-0.800753,4.26329e-10,0.000158628,-3.56215e-10
-0.800911,7.01395e-11,0.00015783,3.5619e-10
-0.801068,4.26354e-10,0.000157037,-3.56215e-10
-0.801224,7.01639e-11,0.000156248,3.5619e-10
-0.80138,4.26378e-10,0.000155463,-3.56214e-10
-0.801534,7.0188e-11,0.000154682,3.5619e-10
-0.801688,4.26402e-10,0.000153904,-3.56214e-10
-0.801841,7.02119e-11,0.000153131,3.5619e-10
-0.801994,4.26426e-10,0.000152362,-3.56214e-10
-0.802145,7.02356e-11,0.000151596,3.5619e-10
-0.802296,4.2645e-10,0.000150834,-3.56214e-10
-0.802446,7.0259e-11,0.000150076,3.56191e-10
-0.802596,4.26473e-10,0.000149322,-3.56214e-10
-0.802744,7.02822e-11,0.000148572,3.56191e-10
-0.802892,4.26496e-10,0.000147825,-3.56214e-10
-0.803039,7.03052e-11,0.000147082,3.56191e-10
-0.803185,4.26519e-10,0.000146343,-3.56214e-10
-0.803331,7.03279e-11,0.000145608,3.56191e-10
-0.803476,4.26541e-10,0.000144876,-3.56213e-10
-0.80362,7.03504e-11,0.000144148,3.56191e-10
-0.803763,4.26564e-10,0.000143424,-3.56213e-10
-0.803906,7.03727e-11,0.000142703,3.56191e-10
-0.804048,4.26586e-10,0.000141986,-3.56213e-10
-0.804189,7.03947e-11,0.000141272,3.56191e-10
-0.80433,4.26608e-10,0.000140562,-3.56213e-10
-0.80447,7.04166e-11,0.000139856,3.56191e-10
-0.804609,4.2663e-10,0.000139153,-3.56213e-10
-0.804747,7.04382e-11,0.000138454,3.56191e-10
-0.804885,4.26651e-10,0.000137758,-3.56213e-10
-0.805022,7.04596e-11,0.000137066,3.56191e-10
-0.805159,4.26672e-10,0.000136377,-3.56213e-10
-0.805294,7.04809e-11,0.000135692,3.56191e-10
-0.805429,4.26693e-10,0.00013501,-3.56213e-10
-0.805564,7.05018e-11,0.000134332,3.56192e-10
-0.805697,4.26714e-10,0.000133657,-3.56212e-10
-0.80583,7.05225e-11,0.000132985,3.56192e-10
-0.805963,4.26735e-10,0.000132317,-3.56212e-10
-0.806094,7.05431e-11,0.000131652,3.56192e-10
-0.806225,4.26755e-10,0.00013099,-3.56212e-10
-0.806356,7.05634e-11,0.000130332,3.56192e-10
-0.806485,4.26776e-10,0.000129677,-3.56212e-10
-0.806614,7.05836e-11,0.000129025,3.56192e-10
-0.806743,4.26796e-10,0.000128377,-3.56212e-10
-0.80687,7.06035e-11,0.000127732,3.56192e-10
-0.806998,4.26815e-10,0.00012709,-3.56212e-10
-0.807124,7.06233e-11,0.000126451,3.56192e-10
-0.80725,4.26835e-10,0.000125816,-3.56212e-10
-0.807375,7.06428e-11,0.000125184,3.56192e-10
-0.8075,4.26855e-10,0.000124555,-3.56212e-10
-0.807623,7.06621e-11,0.000123929,3.56192e-10
-0.807747,4.26874e-10,0.000123306,-3.56212e-10
-0.807869,7.06813e-11,0.000122686,3.56193e-10
-0.807992,4.26893e-10,0.00012207,-3.56212e-10
-0.808113,7.07002e-11,0.000121456,3.56193e-10
-0.808234,4.26912e-10,0.000120846,-3.56212e-10
-0.808354,7.0719e-11,0.000120239,3.56193e-10
-0.808474,4.2693e-10,0.000119635,-3.56211e-10
-0.808593,7.07376e-11,0.000119033,3.56193e-10
-0.808711,4.26949e-10,0.000118435,-3.56211e-10
-0.808829,7.0756e-11,0.00011784,3.56193e-10
-0.808946,4.26967e-10,0.000117248,-3.56211e-10
-0.809063,7.07742e-11,0.000116659,3.56193e-10
-0.809179,4.26985e-10,0.000116073,-3.56211e-10
-0.809294,7.07922e-11,0.000115489,3.56193e-10
-0.809409,4.27003e-10,0.000114909,-3.56211e-10
-0.809524,7.08101e-11,0.000114332,3.56193e-10
-0.809637,4.27021e-10,0.000113757,-3.56211e-10
-0.809751,7.08278e-11,0.000113185,3.56193e-10
-0.809863,4.27039e-10,0.000112617,-3.56211e-10
-0.809975,7.08453e-11,0.000112051,3.56193e-10
-0.810087,4.27056e-10,0.000111488,-3.56211e-10
-0.810198,7.08626e-11,0.000110927,3.56193e-10
-0.810308,4.27073e-10,0.00011037,-3.56211e-10
-0.810418,7.08797e-11,0.000109815,3.56193e-10
-0.810527,4.2709e-10,0.000109263,-3.56211e-10
-0.810636,7.08967e-11,0.000108714,3.56194e-10
-0.810744,4.27107e-10,0.000108168,-3.5621e-10
-0.810852,7.09135e-11,0.000107625,3.56194e-10
-0.810959,4.27124e-10,0.000107084,-3.5621e-10
-0.811065,7.09301e-11,0.000106546,3.56194e-10
-0.811171,4.2714e-10,0.00010601,-3.5621e-10
-0.811277,7.09466e-11,0.000105477,3.56194e-10
-0.811382,4.27157e-10,0.000104947,-3.5621e-10
-0.811486,7.09628e-11,0.00010442,3.56194e-10
-0.81159,4.27173e-10,0.000103895,-3.5621e-10
-0.811693,7.0979e-11,0.000103373,3.56194e-10
-0.811796,4.27189e-10,0.000102854,-3.5621e-10
-0.811899,7.0995e-11,0.000102337,3.56194e-10
-0.812,4.27205e-10,0.000101823,-3.5621e-10
-0.812102,7.10108e-11,0.000101311,3.56194e-10
-0.812203,4.27221e-10,0.000100802,-3.5621e-10
-0.812303,7.10265e-11,0.000100295,3.56194e-10
-0.812403,4.27236e-10,9.97914e-05,-3.5621e-10
-0.812502,7.10419e-11,9.92899e-05,3.56194e-10
-0.812601,4.27252e-10,9.8791e-05,-3.5621e-10
-0.812699,7.10573e-11,9.82945e-05,3.56194e-10
-0.812797,4.27267e-10,9.78006e-05,-3.5621e-10
-0.812894,7.10725e-11,9.73091e-05,3.56194e-10
-0.812991,4.27282e-10,9.68201e-05,-3.5621e-10
-0.813087,7.10875e-11,9.63336e-05,3.56195e-10
-0.813183,4.27297e-10,9.58495e-05,-3.5621e-10
-0.813279,7.11025e-11,9.53679e-05,3.56195e-10
-0.813373,4.27312e-10,9.48886e-05,-3.56209e-10
-0.813468,7.11172e-11,9.44118e-05,3.56195e-10
-0.813562,4.27327e-10,9.39374e-05,-3.56209e-10
-0.813655,7.11318e-11,9.34653e-05,3.56195e-10
-0.813748,4.27341e-10,9.29956e-05,-3.56209e-10
-0.813841,7.11462e-11,9.25283e-05,3.56195e-10
-0.813933,4.27355e-10,9.20634e-05,-3.56209e-10
-0.814024,7.11605e-11,9.16007e-05,3.56195e-10
-0.814116,4.2737e-10,9.11404e-05,-3.56209e-10
-0.814206,7.11747e-11,9.06824e-05,3.56195e-10
-0.814296,4.27384e-10,9.02267e-05,-3.56209e-10
-0.814386,7.11887e-11,8.97733e-05,3.56195e-10
-0.814476,4.27398e-10,8.93222e-05,-3.56209e-10
-0.814564,7.12026e-11,8.88734e-05,3.56195e-10
-0.814653,4.27411e-10,8.84268e-05,-3.56209e-10
-0.814741,7.12163e-11,8.79824e-05,3.56195e-10
-0.814828,4.27425e-10,8.75403e-05,-3.56209e-10
-0.814915,7.12299e-11,8.71004e-05,3.56195e-10
-0.815002,4.27439e-10,8.66627e-05,-3.56209e-10
-0.815088,7.12434e-11,8.62272e-05,3.56195e-10
-0.815174,4.27452e-10,8.57939e-05,-3.56209e-10
-0.81526,7.12567e-11,8.53628e-05,3.56195e-10
-0.815344,4.27465e-10,8.49338e-05,-3.56209e-10
-0.815429,7.12699e-11,8.4507e-05,3.56195e-10
-0.815513,4.27478e-10,8.40824e-05,-3.56208e-10
-0.815597,7.1283e-11,8.36598e-05,3.56195e-10
-0.81568,4.27491e-10,8.32394e-05,-3.56208e-10
-0.815763,7.12959e-11,8.28211e-05,3.56195e-10
-0.815845,4.27504e-10,8.2405e-05,-3.56208e-10
-0.815927,7.13087e-11,8.19909e-05,3.56195e-10
-0.816009,4.27517e-10,8.15788e-05,-3.56208e-10
-0.81609,7.13214e-11,8.11689e-05,3.56196e-10
-0.816171,4.2753e-10,8.0761e-05,-3.56208e-10
-0.816251,7.1334e-11,8.03552e-05,3.56196e-10
-0.816331,4.27542e-10,7.99514e-05,-3.56208e-10
-0.816411,7.13464e-11,7.95496e-05,3.56196e-10
-0.81649,4.27554e-10,7.91499e-05,-3.56208e-10
-0.816568,7.13587e-11,7.87521e-05,3.56196e-10
-0.816647,4.27567e-10,7.83564e-05,-3.56208e-10
-0.816725,7.13709e-11,7.79626e-05,3.56196e-10
-0.816802,4.27579e-10,7.75709e-05,-3.56208e-10
-0.816879,7.13829e-11,7.71811e-05,3.56196e-10
-0.816956,4.27591e-10,7.67932e-05,-3.56208e-10
-0.817033,7.13948e-11,7.64073e-05,3.56196e-10
-0.817109,4.27603e-10,7.60234e-05,-3.56208e-10
-0.817184,7.14066e-11,7.56413e-05,3.56196e-10
-0.81726,4.27614e-10,7.52612e-05,-3.56208e-10
-0.817335,7.14183e-11,7.4883e-05,3.56196e-10
-0.817409,4.27626e-10,7.45067e-05,-3.56208e-10
-0.817483,7.14299e-11,7.41323e-05,3.56196e-10
-0.817557,4.27637e-10,7.37598e-05,-3.56208e-10
-0.81763,7.14413e-11,7.33892e-05,3.56196e-10
-0.817703,4.27649e-10,7.30204e-05,-3.56208e-10
-0.817776,7.14527e-11,7.26534e-05,3.56196e-10
-0.817848,4.2766e-10,7.22883e-05,-3.56207e-10
-0.81792,7.1464e-11,7.19251e-05,3.56196e-10
-0.817992,4.27671e-10,7.15637e-05,-3.56207e-10
-0.818063,7.14751e-11,7.1204e-05,3.56196e-10
-0.818134,4.27682e-10,7.08462e-05,-3.56207e-10
-0.818204,7.1486e-11,7.04902e-05,3.56196e-10
-0.818274,4.27693e-10,7.0136e-05,-3.56207e-10
-0.818344,7.14969e-11,6.97836e-05,3.56196e-10
-0.818414,4.27704e-10,6.94329e-05,-3.56207e-10
-0.818483,7.15077e-11,6.9084e-05,3.56197e-10
-0.818551,4.27715e-10,6.87368e-05,-3.56207e-10
-0.81862,7.15183e-11,6.83914e-05,3.56197e-10
-0.818688,4.27726e-10,6.80477e-05,-3.56207e-10
-0.818756,7.15289e-11,6.77058e-05,3.56197e-10
-0.818823,4.27736e-10,6.73656e-05,-3.56207e-10
-0.81889,7.15394e-11,6.7027e-05,3.56197e-10
-0.818957,4.27747e-10,6.66902e-05,-3.56207e-10
-0.819023,7.15497e-11,6.63551e-05,3.56197e-10
-0.819089,4.27757e-10,6.60216e-05,-3.56207e-10
-0.819155,7.15599e-11,6.56899e-05,3.56197e-10
-0.81922,4.27767e-10,6.53598e-05,-3.56207e-10
-0.819285,7.15701e-11,6.50313e-05,3.56197e-10
-0.81935,4.27777e-10,6.47045e-05,-3.56207e-10
-0.819414,7.15802e-11,6.43794e-05,3.56197e-10
-0.819478,4.27787e-10,6.40559e-05,-3.56207e-10
-0.819542,7.15901e-11,6.3734e-05,3.56197e-10
-0.819605,4.27797e-10,6.34137e-05,-3.56207e-10
-0.819669,7.16e-11,6.30951e-05,3.56197e-10
-0.819731,4.27807e-10,6.2778e-05,-3.56207e-10
-0.819794,7.16097e-11,6.24625e-05,3.56197e-10
-0.819856,4.27817e-10,6.21486e-05,-3.56207e-10
-0.819918,7.16194e-11,6.18363e-05,3.56197e-10
-0.819979,4.27826e-10,6.15256e-05,-3.56207e-10
-0.82004,7.16289e-11,6.12164e-05,3.56197e-10
-0.820101,4.27836e-10,6.09088e-05,-3.56207e-10
-0.820162,7.16384e-11,6.06027e-05,3.56197e-10
-0.820222,4.27845e-10,6.02982e-05,-3.56207e-10
-0.820282,7.16478e-11,5.99952e-05,3.56197e-10
-0.820342,4.27854e-10,5.96937e-05,-3.56207e-10
-0.820401,7.16571e-11,5.93937e-05,3.56197e-10
-0.82046,4.27864e-10,5.90953e-05,-3.56206e-10
-0.820519,7.16663e-11,5.87983e-05,3.56197e-10
-0.820578,4.27873e-10,5.85029e-05,-3.56206e-10
-0.820636,7.16753e-11,5.82089e-05,3.56197e-10
-0.820694,4.27882e-10,5.79164e-05,-3.56206e-10
-0.820752,7.16843e-11,5.76253e-05,3.56197e-10
-0.820809,4.27891e-10,5.73358e-05,-3.56206e-10
-0.820866,7.16932e-11,5.70476e-05,3.56197e-10
-0.820923,4.279e-10,5.6761e-05,-3.56206e-10
-0.820979,7.1702e-11,5.64757e-05,3.56198e-10
-0.821035,4.27908e-10,5.61919e-05,-3.56206e-10
-0.821091,7.17107e-11,5.59096e-05,3.56198e-10
-0.821147,4.27917e-10,5.56286e-05,-3.56206e-10
-0.821202,7.17194e-11,5.53491e-05,3.56198e-10
-0.821257,4.27926e-10,5.50709e-05,-3.56206e-10
-0.821312,7.17279e-11,5.47942e-05,3.56198e-10
-0.821367,4.27934e-10,5.45188e-05,-3.56206e-10
-0.821421,7.17364e-11,5.42449e-05,3.56198e-10
-0.821475,4.27943e-10,5.39723e-05,-3.56206e-10
-0.821529,7.17448e-11,5.37011e-05,3.56198e-10
-0.821582,4.27951e-10,5.34312e-05,-3.56206e-10
-0.821635,7.17531e-11,5.31627e-05,3.56198e-10
-0.821688,4.27959e-10,5.28956e-05,-3.56206e-10
-0.821741,7.17613e-11,5.26298e-05,3.56198e-10
-0.821793,4.27967e-10,5.23653e-05,-3.56206e-10
-0.821845,7.17694e-11,5.21022e-05,3.56198e-10
-0.821897,4.27975e-10,5.18403e-05,-3.56206e-10
-0.821949,7.17775e-11,5.15798e-05,3.56198e-10
-0.822,4.27983e-10,5.13206e-05,-3.56206e-10
-0.822051,7.17854e-11,5.10627e-05,3.56198e-10
-0.822102,4.27991e-10,5.08061e-05,-3.56206e-10
-0.822152,7.17933e-11,5.05508e-05,3.56198e-10
-0.822203,4.27999e-10,5.02968e-05,-3.56206e-10
-0.822253,7.18011e-11,5.00441e-05,3.56198e-10
-0.822302,4.28007e-10,4.97926e-05,-3.56206e-10
-0.822352,7.18089e-11,4.95424e-05,3.56198e-10
-0.822401,4.28015e-10,4.92934e-05,-3.56206e-10
-0.82245,7.18165e-11,4.90457e-05,3.56198e-10
-0.822499,4.28022e-10,4.87993e-05,-3.56206e-10
-0.822548,7.18241e-11,4.8554e-05,3.56198e-10
-0.822596,4.2803e-10,4.831e-05,-3.56206e-10
-0.822644,7.18316e-11,4.80673e-05,3.56198e-10
-0.822692,4.28037e-10,4.78257e-05,-3.56206e-10
-0.822739,7.18391e-11,4.75854e-05,3.56198e-10
-0.822787,4.28045e-10,4.73463e-05,-3.56206e-10
-0.822834,7.18464e-11,4.71084e-05,3.56198e-10
-0.822881,4.28052e-10,4.68716e-05,-3.56206e-10
-0.822927,7.18537e-11,4.66361e-05,3.56198e-10
-0.822974,4.28059e-10,4.64017e-05,-3.56206e-10
-0.82302,7.18608e-11,4.61686e-05,3.56198e-10
-0.823066,4.28067e-10,4.59366e-05,-3.56206e-10
-0.823112,7.1868e-11,4.57057e-05,3.56199e-10
-0.823157,4.28074e-10,4.54761e-05,-3.56206e-10
-0.823202,7.1875e-11,4.52475e-05,3.56199e-10
-0.823247,4.28081e-10,4.50202e-05,-3.56206e-10
-0.823292,7.1882e-11,4.47939e-05,3.56199e-10
-0.823337,4.28088e-10,4.45688e-05,-3.56206e-10
-0.823381,7.18889e-11,4.43449e-05,3.56199e-10
-0.823425,4.28095e-10,4.4122e-05,-3.56206e-10
-0.823469,7.18958e-11,4.39003e-05,3.56199e-10
-0.823513,4.28101e-10,4.36797e-05,-3.56206e-10
-0.823556,7.19026e-11,4.34602e-05,3.56199e-10
-0.823599,4.28108e-10,4.32418e-05,-3.56205e-10
-0.823642,7.19093e-11,4.30245e-05,3.56199e-10
-0.823685,4.28115e-10,4.28083e-05,-3.56205e-10
-0.823728,7.19159e-11,4.25932e-05,3.56199e-10
-0.82377,4.28121e-10,4.23792e-05,-3.56205e-10
-0.823812,7.19225e-11,4.21662e-05,3.56199e-10
-0.823854,4.28128e-10,4.19543e-05,-3.56205e-10
-0.823896,7.1929e-11,4.17435e-05,3.56199e-10
-0.823938,4.28134e-10,4.15337e-05,-3.56205e-10
-0.823979,7.19355e-11,4.1325e-05,3.56199e-10
-0.82402,4.28141e-10,4.11173e-05,-3.56205e-10
-0.824061,7.19419e-11,4.09107e-05,3.56199e-10
-0.824102,4.28147e-10,4.07051e-05,-3.56205e-10
-0.824142,7.19483e-11,4.05006e-05,3.56199e-10
-0.824183,4.28153e-10,4.02971e-05,-3.56205e-10
-0.824223,7.19545e-11,4.00946e-05,3.56199e-10
-0.824263,4.2816e-10,3.98931e-05,-3.56205e-10
-0.824302,7.19607e-11,3.96926e-05,3.56199e-10
-0.824342,4.28166e-10,3.94932e-05,-3.56205e-10
-0.824381,7.19669e-11,3.92947e-05,3.56199e-10
-0.82442,4.28172e-10,3.90972e-05,-3.56205e-10
-0.824459,7.19729e-11,3.89008e-05,3.56199e-10
-0.824498,4.28178e-10,3.87053e-05,-3.56205e-10
-0.824536,7.1979e-11,3.85108e-05,3.56199e-10
-0.824575,4.28184e-10,3.83173e-05,-3.56205e-10
-0.824613,7.19849e-11,3.81247e-05,3.56199e-10
-0.824651,4.2819e-10,3.79331e-05,-3.56205e-10
-0.824688,7.19908e-11,3.77425e-05,3.56199e-10
-0.824726,4.28196e-10,3.75529e-05,-3.56205e-10
-0.824763,7.19966e-11,3.73642e-05,3.56199e-10
-0.8248,4.28201e-10,3.71764e-05,-3.56205e-10
-0.824837,7.20024e-11,3.69896e-05,3.56199e-10
-0.824874,4.28207e-10,3.68037e-05,-3.56205e-10
-0.824911,7.20081e-11,3.66188e-05,3.56199e-10
-0.824947,4.28213e-10,3.64347e-05,-3.56205e-10
-0.824984,7.20138e-11,3.62517e-05,3.56199e-10
-0.82502,4.28219e-10,3.60695e-05,-3.56205e-10
-0.825055,7.20194e-11,3.58882e-05,3.56199e-10
-0.825091,4.28224e-10,3.57079e-05,-3.56205e-10
-0.825127,7.20249e-11,3.55285e-05,3.56199e-10
-0.825162,4.2823e-10,3.53499e-05,-3.56205e-10
-0.825197,7.20304e-11,3.51723e-05,3.56199e-10
-0.825232,4.28235e-10,3.49955e-05,-3.56205e-10
-0.825267,7.20359e-11,3.48197e-05,3.56199e-10
-0.825302,4.2824e-10,3.46447e-05,-3.56205e-10
-0.825336,7.20412e-11,3.44706e-05,3.56199e-10
-0.82537,4.28246e-10,3.42974e-05,-3.56205e-10
-0.825405,7.20466e-11,3.4125e-05,3.56199e-10
-0.825439,4.28251e-10,3.39536e-05,-3.56205e-10
-0.825472,7.20518e-11,3.37829e-05,3.56199e-10
-0.825506,4.28256e-10,3.36132e-05,-3.56205e-10
-0.825539,7.2057e-11,3.34443e-05,3.56199e-10
-0.825573,4.28262e-10,3.32762e-05,-3.56205e-10
-0.825606,7.20622e-11,3.3109e-05,3.56199e-10
-0.825639,4.28267e-10,3.29426e-05,-3.56205e-10
-0.825671,7.20674e-11,3.27771e-05,3.56199e-10
-0.825704,4.28272e-10,3.26124e-05,-3.56204e-10
-0.825737,7.20725e-11,3.24485e-05,3.56199e-10
-0.825769,4.28277e-10,3.22854e-05,-3.56204e-10
-0.825801,7.20775e-11,3.21232e-05,3.56199e-10
-0.825833,4.28282e-10,3.19618e-05,-3.56204e-10
-0.825865,7.20824e-11,3.18012e-05,3.56199e-10
-0.825896,4.28287e-10,3.16413e-05,-3.56204e-10
-0.825928,7.20874e-11,3.14823e-05,3.56199e-10
-0.825959,4.28292e-10,3.13241e-05,-3.56204e-10
-0.82599,7.20922e-11,3.11667e-05,3.56199e-10
-0.826021,4.28296e-10,3.10101e-05,-3.56204e-10
-0.826052,7.2097e-11,3.08543e-05,3.56199e-10
-0.826083,4.28301e-10,3.06992e-05,-3.56204e-10
